svm_type c_svc
kernel_type polynomial
degree 3
gamma 0.00390625
coef0 0.0
nr_class 2
total_sv 300
rho 1.0059355933772354E23
label 4 2
nr_sv 150 150
SV
70.0 1:1099510.0 2:10.0 3:4.0 4:3.0 5:1.0 6:3.0 7:3.0 8:6.0 9:5.0 10:2.0 
70.0 1:1100524.0 2:6.0 3:10.0 4:10.0 5:2.0 6:8.0 7:10.0 8:7.0 9:3.0 10:3.0 
70.0 1:1105257.0 2:3.0 3:7.0 4:7.0 5:4.0 6:4.0 7:9.0 8:4.0 9:8.0 10:1.0 
70.0 1:1106829.0 2:7.0 3:8.0 4:7.0 5:2.0 6:4.0 7:8.0 8:3.0 9:8.0 10:2.0 
70.0 1:1108449.0 2:5.0 3:3.0 4:3.0 5:4.0 6:2.0 7:4.0 8:3.0 9:4.0 10:1.0 
70.0 1:1110102.0 2:10.0 3:3.0 4:6.0 5:2.0 6:3.0 7:5.0 8:4.0 9:10.0 10:2.0 
70.0 1:1110503.0 2:5.0 3:5.0 4:5.0 5:8.0 6:10.0 7:8.0 8:7.0 9:3.0 10:7.0 
70.0 1:1113483.0 2:5.0 3:2.0 4:3.0 5:1.0 6:6.0 7:10.0 8:5.0 9:1.0 10:1.0 
70.0 1:1113906.0 2:9.0 3:5.0 4:5.0 5:2.0 6:2.0 7:2.0 8:5.0 9:1.0 10:1.0 
70.0 1:1116116.0 2:9.0 3:10.0 4:10.0 5:1.0 6:10.0 7:8.0 8:3.0 9:3.0 10:1.0 
70.0 1:1116998.0 2:10.0 3:4.0 4:2.0 5:1.0 6:3.0 7:2.0 8:4.0 9:3.0 10:10.0 
70.0 1:1120559.0 2:8.0 3:3.0 4:8.0 5:3.0 6:4.0 7:9.0 8:8.0 9:9.0 10:8.0 
70.0 1:1126417.0 2:10.0 3:6.0 4:4.0 5:1.0 6:3.0 7:4.0 8:3.0 9:2.0 10:3.0 
70.0 1:1148278.0 2:3.0 3:3.0 4:6.0 5:4.0 6:5.0 7:8.0 8:4.0 9:4.0 10:1.0 
70.0 1:1148873.0 2:3.0 3:6.0 4:6.0 5:6.0 6:5.0 7:10.0 8:6.0 9:8.0 10:3.0 
70.0 1:1165926.0 2:9.0 3:6.0 4:9.0 5:2.0 6:10.0 7:6.0 8:2.0 9:9.0 10:10.0 
70.0 1:1166630.0 2:7.0 3:5.0 4:6.0 5:10.0 6:5.0 7:10.0 8:7.0 9:9.0 10:4.0 
70.0 1:1167439.0 2:2.0 3:3.0 4:4.0 5:4.0 6:2.0 7:5.0 8:2.0 9:5.0 10:1.0 
70.0 1:1168359.0 2:8.0 3:2.0 4:3.0 5:1.0 6:6.0 7:3.0 8:7.0 9:1.0 10:1.0 
70.0 1:1168736.0 2:10.0 3:10.0 4:10.0 5:10.0 6:10.0 7:1.0 8:8.0 9:8.0 10:8.0 
70.0 1:1170420.0 2:1.0 3:6.0 4:8.0 5:10.0 6:8.0 7:10.0 8:5.0 9:7.0 10:1.0 
70.0 1:1172152.0 2:10.0 3:3.0 4:3.0 5:10.0 6:2.0 7:10.0 8:7.0 9:3.0 10:3.0 
70.0 1:1173216.0 2:10.0 3:10.0 4:10.0 5:3.0 6:10.0 7:8.0 8:8.0 9:1.0 10:1.0 
70.0 1:1173509.0 2:4.0 3:5.0 4:5.0 5:10.0 6:4.0 7:10.0 8:7.0 9:5.0 10:8.0 
70.0 1:1174428.0 2:5.0 3:3.0 4:5.0 5:1.0 6:8.0 7:10.0 8:5.0 9:3.0 10:1.0 
70.0 1:1175937.0 2:5.0 3:4.0 4:6.0 5:7.0 6:9.0 7:7.0 8:8.0 9:10.0 10:1.0 
70.0 1:1176881.0 2:7.0 3:5.0 4:3.0 5:7.0 6:4.0 7:10.0 8:7.0 9:5.0 10:5.0 
70.0 1:1180194.0 2:5.0 3:10.0 4:8.0 5:10.0 6:8.0 7:10.0 8:3.0 9:6.0 10:3.0 
70.0 1:1185609.0 2:3.0 3:4.0 4:5.0 5:2.0 6:6.0 7:8.0 8:4.0 9:1.0 10:1.0 
70.0 1:1187805.0 2:8.0 3:8.0 4:7.0 5:4.0 6:10.0 7:10.0 8:7.0 9:8.0 10:7.0 
70.0 1:1189266.0 2:7.0 3:2.0 4:4.0 5:1.0 6:6.0 7:10.0 8:5.0 9:4.0 10:3.0 
70.0 1:1192325.0 2:5.0 3:5.0 4:5.0 5:6.0 6:3.0 7:10.0 8:3.0 9:1.0 10:1.0 
70.0 1:1196915.0 2:10.0 3:7.0 4:7.0 5:4.0 6:5.0 7:10.0 8:5.0 9:7.0 10:2.0 
70.0 1:1200847.0 2:6.0 3:10.0 4:10.0 5:10.0 6:8.0 7:10.0 8:10.0 9:10.0 10:7.0 
70.0 1:1200892.0 2:8.0 3:6.0 4:5.0 5:4.0 6:3.0 7:10.0 8:6.0 9:1.0 10:1.0 
70.0 1:1200952.0 2:5.0 3:8.0 4:7.0 5:7.0 6:10.0 7:10.0 8:5.0 9:7.0 10:1.0 
70.0 1:1201936.0 2:5.0 3:10.0 4:10.0 5:3.0 6:8.0 7:1.0 8:5.0 9:10.0 10:3.0 
70.0 1:1202812.0 2:5.0 3:3.0 4:3.0 5:3.0 6:6.0 7:10.0 8:3.0 9:1.0 10:1.0 
70.0 1:1205579.0 2:8.0 3:7.0 4:6.0 5:4.0 6:4.0 7:10.0 8:5.0 9:1.0 10:1.0 
70.0 1:1206695.0 2:1.0 3:5.0 4:8.0 5:6.0 6:5.0 7:8.0 8:7.0 9:10.0 10:1.0 
70.0 1:1207986.0 2:5.0 3:8.0 4:4.0 5:10.0 6:5.0 7:8.0 8:9.0 9:10.0 10:1.0 
70.0 1:1210963.0 2:10.0 3:10.0 4:10.0 5:8.0 6:6.0 7:8.0 8:7.0 9:10.0 10:1.0 
70.0 1:1211202.0 2:7.0 3:5.0 4:10.0 5:10.0 6:10.0 7:10.0 8:4.0 9:10.0 10:3.0 
70.0 1:1216694.0 2:10.0 3:8.0 4:8.0 5:4.0 6:10.0 7:10.0 8:8.0 9:1.0 10:1.0 
70.0 1:1218105.0 2:5.0 3:10.0 4:10.0 5:9.0 6:6.0 7:10.0 8:7.0 9:10.0 10:5.0 
70.0 1:1218741.0 2:10.0 3:10.0 4:9.0 5:3.0 6:7.0 7:5.0 8:3.0 9:5.0 10:1.0 
70.0 1:1219525.0 2:8.0 3:10.0 4:10.0 5:10.0 6:5.0 7:10.0 8:8.0 9:10.0 10:6.0 
70.0 1:1219859.0 2:8.0 3:10.0 4:8.0 5:8.0 6:4.0 7:8.0 8:7.0 9:7.0 10:1.0 
70.0 1:1225799.0 2:10.0 3:6.0 4:4.0 5:3.0 6:10.0 7:10.0 8:9.0 9:10.0 10:1.0 
70.0 1:1226612.0 2:7.0 3:5.0 4:6.0 5:3.0 6:3.0 7:8.0 8:7.0 9:4.0 10:1.0 
70.0 1:1227210.0 2:10.0 3:5.0 4:5.0 5:6.0 6:3.0 7:10.0 8:7.0 9:9.0 10:2.0 
70.0 1:1228152.0 2:8.0 3:9.0 4:9.0 5:5.0 6:3.0 7:5.0 8:7.0 9:7.0 10:1.0 
70.0 1:1230175.0 2:10.0 3:10.0 4:10.0 5:3.0 6:10.0 7:10.0 8:9.0 9:10.0 10:1.0 
70.0 1:1230688.0 2:7.0 3:4.0 4:7.0 5:4.0 6:3.0 7:7.0 8:7.0 9:6.0 10:1.0 
70.0 1:1231387.0 2:6.0 3:8.0 4:7.0 5:5.0 6:6.0 7:8.0 8:8.0 9:9.0 10:2.0 
70.0 1:1232225.0 2:10.0 3:4.0 4:5.0 5:5.0 6:5.0 7:10.0 8:4.0 9:1.0 10:1.0 
70.0 1:1241679.0 2:9.0 3:8.0 4:8.0 5:5.0 6:6.0 7:2.0 8:4.0 9:10.0 10:4.0 
70.0 1:1242364.0 2:8.0 3:10.0 4:10.0 5:8.0 6:6.0 7:9.0 8:3.0 9:10.0 10:10.0 
70.0 1:1243256.0 2:10.0 3:4.0 4:3.0 5:2.0 6:3.0 7:10.0 8:5.0 9:3.0 10:2.0 
70.0 1:1100524.0 2:6.0 3:10.0 4:10.0 5:2.0 6:8.0 7:10.0 8:7.0 9:3.0 10:3.0 
70.0 1:1116116.0 2:9.0 3:10.0 4:10.0 5:1.0 6:10.0 7:8.0 8:3.0 9:3.0 10:1.0 
70.0 1:1168736.0 2:5.0 3:6.0 4:6.0 5:2.0 6:4.0 7:10.0 8:3.0 9:6.0 10:1.0 
70.0 1:255644.0 2:10.0 3:5.0 4:8.0 5:10.0 6:3.0 7:10.0 8:5.0 9:1.0 10:3.0 
70.0 1:274137.0 2:8.0 3:8.0 4:9.0 5:4.0 6:5.0 7:10.0 8:7.0 9:8.0 10:1.0 
70.0 1:314428.0 2:7.0 3:9.0 4:4.0 5:10.0 6:10.0 7:3.0 8:5.0 9:3.0 10:3.0 
70.0 1:1198641.0 2:10.0 3:10.0 4:6.0 5:3.0 6:3.0 7:10.0 8:4.0 9:3.0 10:2.0 
70.0 1:324427.0 2:10.0 3:8.0 4:8.0 5:2.0 6:3.0 7:4.0 8:8.0 9:7.0 10:8.0 
70.0 1:390840.0 2:8.0 3:4.0 4:7.0 5:1.0 6:3.0 7:10.0 8:3.0 9:9.0 10:2.0 
70.0 1:476903.0 2:10.0 3:5.0 4:7.0 5:3.0 6:3.0 7:7.0 8:3.0 9:3.0 10:8.0 
70.0 1:488173.0 2:1.0 3:4.0 4:3.0 5:10.0 6:4.0 7:10.0 8:5.0 9:6.0 10:1.0 
70.0 1:508234.0 2:7.0 3:4.0 4:5.0 5:10.0 6:2.0 7:10.0 8:3.0 9:8.0 10:2.0 
70.0 1:527363.0 2:8.0 3:10.0 4:10.0 5:10.0 6:8.0 7:10.0 8:10.0 9:7.0 10:3.0 
70.0 1:601265.0 2:10.0 3:4.0 4:4.0 5:6.0 6:2.0 7:10.0 8:2.0 9:3.0 10:1.0 
70.0 1:606722.0 2:5.0 3:5.0 4:7.0 5:8.0 6:6.0 7:10.0 8:7.0 9:4.0 10:1.0 
70.0 1:63375.0 2:9.0 3:1.0 4:2.0 5:6.0 6:4.0 7:10.0 8:7.0 9:7.0 10:2.0 
70.0 1:635844.0 2:8.0 3:4.0 4:10.0 5:5.0 6:4.0 7:4.0 8:7.0 9:10.0 10:1.0 
70.0 1:653777.0 2:8.0 3:3.0 4:4.0 5:9.0 6:3.0 7:10.0 8:3.0 9:3.0 10:1.0 
70.0 1:667204.0 2:7.0 3:8.0 4:7.0 5:6.0 6:4.0 7:3.0 8:8.0 9:8.0 10:4.0 
70.0 1:706426.0 2:5.0 3:5.0 4:5.0 5:2.0 6:5.0 7:10.0 8:4.0 9:3.0 10:1.0 
70.0 1:709287.0 2:6.0 3:8.0 4:7.0 5:8.0 6:6.0 7:8.0 8:8.0 9:9.0 10:1.0 
70.0 1:733823.0 2:5.0 3:4.0 4:6.0 5:10.0 6:2.0 7:10.0 8:4.0 9:1.0 10:1.0 
70.0 1:752904.0 2:10.0 3:1.0 4:1.0 5:1.0 6:2.0 7:10.0 8:5.0 9:4.0 10:1.0 
28.35267691742874 1:760001.0 2:8.0 3:10.0 4:3.0 5:2.0 6:6.0 7:4.0 8:3.0 9:10.0 10:1.0 
70.0 1:76389.0 2:10.0 3:4.0 4:7.0 5:2.0 6:2.0 7:8.0 8:6.0 9:1.0 10:1.0 
70.0 1:806423.0 2:8.0 3:5.0 4:5.0 5:5.0 6:2.0 7:10.0 8:4.0 9:3.0 10:1.0 
70.0 1:832226.0 2:3.0 3:4.0 4:4.0 5:10.0 6:5.0 7:1.0 8:3.0 9:3.0 10:1.0 
70.0 1:859164.0 2:5.0 3:3.0 4:3.0 5:1.0 6:3.0 7:3.0 8:3.0 9:3.0 10:3.0 
70.0 1:859350.0 2:8.0 3:10.0 4:10.0 5:7.0 6:10.0 7:10.0 8:7.0 9:3.0 10:8.0 
70.0 1:866325.0 2:8.0 3:10.0 4:5.0 5:3.0 6:8.0 7:4.0 8:4.0 9:10.0 10:3.0 
70.0 1:873549.0 2:10.0 3:3.0 4:5.0 5:4.0 6:3.0 7:7.0 8:3.0 9:5.0 10:3.0 
70.0 1:877291.0 2:6.0 3:10.0 4:10.0 5:10.0 6:10.0 7:10.0 8:8.0 9:10.0 10:10.0 
70.0 1:95719.0 2:6.0 3:10.0 4:10.0 5:10.0 6:8.0 7:10.0 8:7.0 9:10.0 10:7.0 
70.0 1:160296.0 2:5.0 3:8.0 4:8.0 5:10.0 6:5.0 7:10.0 8:8.0 9:10.0 10:3.0 
70.0 1:1080233.0 2:7.0 3:6.0 4:6.0 5:3.0 6:2.0 7:10.0 8:7.0 9:1.0 10:1.0 
70.0 1:1211265.0 2:3.0 3:10.0 4:8.0 5:7.0 6:6.0 7:9.0 8:9.0 9:3.0 10:8.0 
70.0 1:1238633.0 2:10.0 3:10.0 4:10.0 5:6.0 6:8.0 7:4.0 8:8.0 9:5.0 10:1.0 
70.0 1:1238948.0 2:8.0 3:5.0 4:6.0 5:2.0 6:3.0 7:10.0 8:6.0 9:6.0 10:1.0 
70.0 1:1239347.0 2:8.0 3:7.0 4:8.0 5:5.0 6:10.0 7:10.0 8:7.0 9:2.0 10:1.0 
70.0 1:1257200.0 2:10.0 3:10.0 4:10.0 5:7.0 6:10.0 7:10.0 8:8.0 9:2.0 10:1.0 
70.0 1:1258549.0 2:9.0 3:10.0 4:10.0 5:10.0 6:10.0 7:10.0 8:10.0 9:10.0 10:1.0 
70.0 1:1266154.0 2:8.0 3:7.0 4:8.0 5:2.0 6:4.0 7:2.0 8:5.0 9:10.0 10:1.0 
70.0 1:1294562.0 2:10.0 3:8.0 4:10.0 5:1.0 6:3.0 7:10.0 8:5.0 9:1.0 10:1.0 
70.0 1:1295186.0 2:10.0 3:10.0 4:10.0 5:1.0 6:6.0 7:1.0 8:2.0 9:8.0 10:1.0 
70.0 1:608157.0 2:10.0 3:4.0 4:3.0 5:10.0 6:4.0 7:10.0 8:10.0 9:1.0 10:1.0 
70.0 1:1193544.0 2:5.0 3:7.0 4:9.0 5:8.0 6:6.0 7:10.0 8:8.0 9:10.0 10:1.0 
70.0 1:1230994.0 2:4.0 3:5.0 4:5.0 5:8.0 6:6.0 7:10.0 8:10.0 9:7.0 10:1.0 
70.0 1:1246562.0 2:10.0 3:2.0 4:2.0 5:1.0 6:2.0 7:6.0 8:1.0 9:1.0 10:2.0 
70.0 1:1257470.0 2:10.0 3:6.0 4:5.0 5:8.0 6:5.0 7:10.0 8:8.0 9:6.0 10:1.0 
70.0 1:1259008.0 2:8.0 3:8.0 4:9.0 5:6.0 6:6.0 7:3.0 8:10.0 9:10.0 10:1.0 
70.0 1:1296572.0 2:10.0 3:9.0 4:8.0 5:7.0 6:6.0 7:4.0 8:7.0 9:10.0 10:3.0 
70.0 1:1298416.0 2:10.0 3:6.0 4:6.0 5:2.0 6:4.0 7:10.0 8:9.0 9:7.0 10:1.0 
70.0 1:1299596.0 2:6.0 3:6.0 4:6.0 5:5.0 6:4.0 7:10.0 8:7.0 9:6.0 10:2.0 
70.0 1:1299161.0 2:4.0 3:8.0 4:7.0 5:10.0 6:4.0 7:10.0 8:7.0 9:5.0 10:1.0 
70.0 1:1318169.0 2:9.0 3:10.0 4:10.0 5:10.0 6:10.0 7:5.0 8:10.0 9:10.0 10:10.0 
70.0 1:474162.0 2:8.0 3:7.0 4:8.0 5:5.0 6:5.0 7:10.0 8:9.0 9:10.0 10:1.0 
70.0 1:1084139.0 2:6.0 3:3.0 4:2.0 5:1.0 6:3.0 7:4.0 8:4.0 9:1.0 10:1.0 
70.0 1:1142706.0 2:5.0 3:10.0 4:10.0 5:10.0 6:6.0 7:10.0 8:6.0 9:5.0 10:2.0 
70.0 1:1330439.0 2:4.0 3:7.0 4:8.0 5:3.0 6:4.0 7:10.0 8:9.0 9:1.0 10:1.0 
70.0 1:412300.0 2:10.0 3:4.0 4:5.0 5:4.0 6:3.0 7:5.0 8:7.0 9:3.0 10:1.0 
70.0 1:1222464.0 2:6.0 3:10.0 4:10.0 5:10.0 6:4.0 7:10.0 8:7.0 9:10.0 10:1.0 
70.0 1:1241035.0 2:7.0 3:8.0 4:3.0 5:7.0 6:4.0 7:5.0 8:7.0 9:8.0 10:2.0 
70.0 1:1331412.0 2:5.0 3:7.0 4:10.0 5:10.0 6:5.0 7:10.0 8:10.0 9:10.0 10:1.0 
70.0 1:1343374.0 2:10.0 3:10.0 4:8.0 5:10.0 6:6.0 7:5.0 8:10.0 9:3.0 10:1.0 
70.0 1:1344121.0 2:8.0 3:10.0 4:4.0 5:4.0 6:8.0 7:10.0 8:8.0 9:2.0 10:1.0 
70.0 1:142932.0 2:7.0 3:6.0 4:10.0 5:5.0 6:3.0 7:10.0 8:9.0 9:10.0 10:2.0 
70.0 1:378275.0 2:10.0 3:9.0 4:7.0 5:3.0 6:4.0 7:2.0 8:7.0 9:7.0 10:1.0 
70.0 1:1107684.0 2:6.0 3:10.0 4:5.0 5:5.0 6:4.0 7:10.0 8:6.0 9:10.0 10:1.0 
70.0 1:1254538.0 2:8.0 3:10.0 4:10.0 5:10.0 6:6.0 7:10.0 8:10.0 9:10.0 10:1.0 
70.0 1:1294261.0 2:4.0 3:10.0 4:8.0 5:5.0 6:4.0 7:1.0 8:10.0 9:1.0 10:1.0 
70.0 1:1295529.0 2:2.0 3:5.0 4:7.0 5:6.0 6:4.0 7:10.0 8:7.0 9:6.0 10:1.0 
70.0 1:1298484.0 2:10.0 3:3.0 4:4.0 5:5.0 6:3.0 7:10.0 8:4.0 9:1.0 10:1.0 
70.0 1:1315506.0 2:4.0 3:8.0 4:6.0 5:3.0 6:4.0 7:10.0 8:7.0 9:1.0 10:1.0 
70.0 1:1352663.0 2:5.0 3:4.0 4:6.0 5:8.0 6:4.0 7:1.0 8:8.0 9:10.0 10:1.0 
70.0 1:188336.0 2:5.0 3:3.0 4:2.0 5:8.0 6:5.0 7:10.0 8:8.0 9:1.0 10:2.0 
70.0 1:557583.0 2:5.0 3:10.0 4:10.0 5:10.0 6:10.0 7:10.0 8:10.0 9:1.0 10:1.0 
70.0 1:736150.0 2:10.0 3:4.0 4:3.0 5:10.0 6:3.0 7:10.0 8:7.0 9:1.0 10:2.0 
70.0 1:803531.0 2:5.0 3:10.0 4:10.0 5:10.0 6:5.0 7:2.0 8:8.0 9:5.0 10:1.0 
70.0 1:1190386.0 2:4.0 3:6.0 4:6.0 5:5.0 6:7.0 7:6.0 8:7.0 9:7.0 10:3.0 
70.0 1:1253955.0 2:8.0 3:7.0 4:4.0 5:4.0 6:5.0 7:3.0 8:5.0 9:10.0 10:1.0 
70.0 1:1268952.0 2:10.0 3:10.0 4:7.0 5:8.0 6:7.0 7:1.0 8:10.0 9:10.0 10:3.0 
70.0 1:1315807.0 2:5.0 3:10.0 4:10.0 5:10.0 6:10.0 7:2.0 8:10.0 9:10.0 10:10.0 
70.0 1:1334015.0 2:7.0 3:8.0 4:8.0 5:7.0 6:3.0 7:10.0 8:7.0 9:2.0 10:3.0 
70.0 1:1350319.0 2:5.0 3:7.0 4:4.0 5:1.0 6:6.0 7:1.0 8:7.0 9:10.0 10:3.0 
70.0 1:1350423.0 2:5.0 3:10.0 4:10.0 5:8.0 6:5.0 7:5.0 8:7.0 9:10.0 10:1.0 
70.0 1:1352848.0 2:3.0 3:10.0 4:7.0 5:8.0 6:5.0 7:8.0 8:7.0 9:4.0 10:1.0 
70.0 1:1371026.0 2:5.0 3:10.0 4:10.0 5:10.0 6:4.0 7:10.0 8:5.0 9:6.0 10:3.0 
70.0 1:695091.0 2:5.0 3:10.0 4:10.0 5:5.0 6:4.0 7:5.0 8:4.0 9:4.0 10:1.0 
70.0 1:888820.0 2:5.0 3:10.0 4:10.0 5:3.0 6:7.0 7:3.0 8:8.0 9:10.0 10:2.0 
70.0 1:897471.0 2:4.0 3:8.0 4:6.0 5:4.0 6:3.0 7:4.0 8:10.0 9:6.0 10:1.0 
70.0 1:897471.0 2:4.0 3:8.0 4:8.0 5:5.0 6:4.0 7:5.0 8:10.0 9:4.0 10:1.0 
-70.0 1:1103722.0 2:1.0 3:1.0 4:1.0 5:1.0 6:2.0 7:1.0 8:2.0 9:1.0 10:2.0 
-70.0 1:1106095.0 2:4.0 3:1.0 4:1.0 5:3.0 6:2.0 7:1.0 8:3.0 9:1.0 10:1.0 
-70.0 1:1115293.0 2:1.0 3:1.0 4:1.0 5:1.0 6:2.0 7:2.0 8:2.0 9:1.0 10:1.0 
-70.0 1:1121732.0 2:1.0 3:1.0 4:1.0 5:1.0 6:2.0 7:1.0 8:3.0 9:2.0 10:1.0 
-70.0 1:1121919.0 2:5.0 3:1.0 4:3.0 5:1.0 6:2.0 7:1.0 8:2.0 9:1.0 10:1.0 
-70.0 1:1124651.0 2:1.0 3:3.0 4:3.0 5:2.0 6:2.0 7:1.0 8:7.0 9:2.0 10:1.0 
-70.0 1:1136142.0 2:2.0 3:1.0 4:1.0 5:1.0 6:3.0 7:1.0 8:2.0 9:1.0 10:1.0 
-70.0 1:1137156.0 2:2.0 3:2.0 4:2.0 5:1.0 6:1.0 7:1.0 8:7.0 9:1.0 10:1.0 
-70.0 1:1147044.0 2:3.0 3:1.0 4:1.0 5:1.0 6:2.0 7:2.0 8:7.0 9:1.0 10:1.0 
-70.0 1:1152331.0 2:4.0 3:1.0 4:1.0 5:1.0 6:2.0 7:1.0 8:3.0 9:1.0 10:1.0 
-70.0 1:1155546.0 2:2.0 3:1.0 4:1.0 5:2.0 6:3.0 7:1.0 8:2.0 9:1.0 10:1.0 
-70.0 1:1156272.0 2:1.0 3:1.0 4:1.0 5:1.0 6:2.0 7:1.0 8:3.0 9:1.0 10:1.0 
-70.0 1:1156948.0 2:3.0 3:1.0 4:1.0 5:2.0 6:2.0 7:1.0 8:1.0 9:1.0 10:1.0 
-70.0 1:1158247.0 2:1.0 3:1.0 4:1.0 5:1.0 6:2.0 7:1.0 8:2.0 9:1.0 10:1.0 
-70.0 1:1164066.0 2:1.0 3:1.0 4:1.0 5:1.0 6:2.0 7:1.0 8:3.0 9:1.0 10:1.0 
-70.0 1:1165297.0 2:2.0 3:1.0 4:1.0 5:2.0 6:2.0 7:1.0 8:1.0 9:1.0 10:1.0 
-70.0 1:1167471.0 2:4.0 3:1.0 4:2.0 5:1.0 6:2.0 7:1.0 8:3.0 9:1.0 10:1.0 
-70.0 1:1171710.0 2:1.0 3:1.0 4:1.0 5:1.0 6:2.0 7:1.0 8:2.0 9:3.0 10:1.0 
-70.0 1:1173514.0 2:1.0 3:1.0 4:1.0 5:1.0 6:4.0 7:3.0 8:1.0 9:1.0 10:1.0 
-70.0 1:1174057.0 2:1.0 3:1.0 4:2.0 5:2.0 6:2.0 7:1.0 8:3.0 9:1.0 10:1.0 
-70.0 1:1174057.0 2:4.0 3:2.0 4:1.0 5:1.0 6:2.0 7:2.0 8:3.0 9:1.0 10:1.0 
-70.0 1:1177027.0 2:3.0 3:1.0 4:1.0 5:1.0 6:2.0 7:1.0 8:3.0 9:1.0 10:1.0 
-70.0 1:1180523.0 2:3.0 3:1.0 4:1.0 5:1.0 6:2.0 7:1.0 8:2.0 9:2.0 10:1.0 
-70.0 1:1180831.0 2:3.0 3:1.0 4:1.0 5:1.0 6:3.0 7:1.0 8:2.0 9:1.0 10:1.0 
-70.0 1:1183516.0 2:3.0 3:1.0 4:1.0 5:1.0 6:2.0 7:1.0 8:1.0 9:1.0 10:1.0 
-70.0 1:1183911.0 2:2.0 3:1.0 4:1.0 5:1.0 6:2.0 7:1.0 8:1.0 9:1.0 10:1.0 
-70.0 1:1187457.0 2:3.0 3:1.0 4:1.0 5:3.0 6:8.0 7:1.0 8:5.0 9:8.0 10:1.0 
-70.0 1:1188472.0 2:1.0 3:1.0 4:1.0 5:1.0 6:1.0 7:1.0 8:3.0 9:1.0 10:1.0 
-70.0 1:1190485.0 2:1.0 3:1.0 4:1.0 5:1.0 6:2.0 7:1.0 8:1.0 9:1.0 10:1.0 
-70.0 1:1193091.0 2:1.0 3:2.0 4:2.0 5:1.0 6:2.0 7:1.0 8:2.0 9:1.0 10:1.0 
-70.0 1:1197080.0 2:4.0 3:1.0 4:1.0 5:1.0 6:2.0 7:1.0 8:3.0 9:2.0 10:1.0 
-70.0 1:1199219.0 2:1.0 3:1.0 4:1.0 5:2.0 6:1.0 7:1.0 8:1.0 9:1.0 10:1.0 
-70.0 1:1199983.0 2:1.0 3:1.0 4:1.0 5:1.0 6:2.0 7:1.0 8:3.0 9:1.0 10:1.0 
-70.0 1:1201834.0 2:2.0 3:1.0 4:1.0 5:1.0 6:2.0 7:1.0 8:3.0 9:1.0 10:1.0 
-70.0 1:1202125.0 2:4.0 3:1.0 4:1.0 5:1.0 6:2.0 7:1.0 8:3.0 9:1.0 10:1.0 
-70.0 1:1203096.0 2:1.0 3:1.0 4:1.0 5:1.0 6:1.0 7:1.0 8:3.0 9:1.0 10:1.0 
-70.0 1:1206089.0 2:2.0 3:1.0 4:1.0 5:1.0 6:1.0 7:1.0 8:3.0 9:1.0 10:1.0 
-70.0 1:1212232.0 2:5.0 3:1.0 4:1.0 5:1.0 6:2.0 7:1.0 8:2.0 9:1.0 10:1.0 
-70.0 1:1213375.0 2:8.0 3:4.0 4:4.0 5:5.0 6:4.0 7:7.0 8:7.0 9:8.0 10:2.0 
-70.0 1:1213383.0 2:5.0 3:1.0 4:1.0 5:4.0 6:2.0 7:1.0 8:3.0 9:1.0 10:1.0 
-70.0 1:1214092.0 2:1.0 3:1.0 4:1.0 5:1.0 6:2.0 7:1.0 8:1.0 9:1.0 10:1.0 
-70.0 1:1216947.0 2:1.0 3:1.0 4:1.0 5:1.0 6:2.0 7:1.0 8:3.0 9:1.0 10:1.0 
-70.0 1:1217264.0 2:1.0 3:1.0 4:1.0 5:1.0 6:2.0 7:1.0 8:3.0 9:1.0 10:1.0 
-70.0 1:1220330.0 2:1.0 3:1.0 4:1.0 5:1.0 6:2.0 7:1.0 8:3.0 9:1.0 10:1.0 
-70.0 1:1223426.0 2:1.0 3:1.0 4:1.0 5:1.0 6:2.0 7:1.0 8:3.0 9:1.0 10:1.0 
-70.0 1:1224329.0 2:1.0 3:1.0 4:1.0 5:2.0 6:2.0 7:1.0 8:3.0 9:1.0 10:1.0 
-70.0 1:1227244.0 2:1.0 3:1.0 4:1.0 5:1.0 6:2.0 7:1.0 8:2.0 9:1.0 10:1.0 
-70.0 1:1228311.0 2:1.0 3:1.0 4:1.0 5:1.0 6:1.0 7:1.0 8:3.0 9:1.0 10:1.0 
-70.0 1:1231706.0 2:8.0 3:4.0 4:6.0 5:3.0 6:3.0 7:1.0 8:4.0 9:3.0 10:1.0 
-70.0 1:1276091.0 2:3.0 3:1.0 4:1.0 5:3.0 6:1.0 7:1.0 8:3.0 9:1.0 10:1.0 
-70.0 1:183913.0 2:1.0 3:2.0 4:2.0 5:1.0 6:2.0 7:1.0 8:1.0 9:1.0 10:1.0 
-70.0 1:1017023.0 2:6.0 3:3.0 4:3.0 5:5.0 6:3.0 7:10.0 8:3.0 9:5.0 10:3.0 
-70.0 1:561477.0 2:1.0 3:1.0 4:1.0 5:1.0 6:2.0 7:1.0 8:3.0 9:1.0 10:1.0 
-70.0 1:616240.0 2:5.0 3:3.0 4:4.0 5:3.0 6:4.0 7:5.0 8:4.0 9:7.0 10:1.0 
-70.0 1:625201.0 2:8.0 3:2.0 4:1.0 5:1.0 6:5.0 7:1.0 8:1.0 9:1.0 10:1.0 
-70.0 1:646904.0 2:1.0 3:1.0 4:1.0 5:1.0 6:2.0 7:1.0 8:3.0 9:1.0 10:1.0 
-70.0 1:673637.0 2:3.0 3:1.0 4:1.0 5:1.0 6:2.0 7:5.0 8:5.0 9:1.0 10:1.0 
-70.0 1:688033.0 2:1.0 3:1.0 4:1.0 5:1.0 6:2.0 7:1.0 8:1.0 9:1.0 10:1.0 
-70.0 1:693702.0 2:1.0 3:1.0 4:1.0 5:1.0 6:2.0 7:1.0 8:1.0 9:1.0 10:1.0 
-70.0 1:718641.0 2:1.0 3:1.0 4:1.0 5:1.0 6:5.0 7:1.0 8:3.0 9:1.0 10:1.0 
-70.0 1:733639.0 2:3.0 3:1.0 4:1.0 5:1.0 6:2.0 7:1.0 8:3.0 9:1.0 10:1.0 
-70.0 1:792744.0 2:1.0 3:1.0 4:1.0 5:1.0 6:2.0 7:1.0 8:1.0 9:1.0 10:1.0 
-70.0 1:810104.0 2:1.0 3:1.0 4:1.0 5:1.0 6:2.0 7:1.0 8:3.0 9:1.0 10:1.0 
-70.0 1:814911.0 2:1.0 3:1.0 4:1.0 5:1.0 6:2.0 7:1.0 8:1.0 9:1.0 10:1.0 
-70.0 1:830690.0 2:5.0 3:2.0 4:2.0 5:2.0 6:3.0 7:1.0 8:1.0 9:3.0 10:1.0 
-70.0 1:855524.0 2:1.0 3:1.0 4:1.0 5:1.0 6:2.0 7:1.0 8:2.0 9:1.0 10:1.0 
-70.0 1:857774.0 2:4.0 3:1.0 4:1.0 5:1.0 6:3.0 7:1.0 8:2.0 9:2.0 10:1.0 
-70.0 1:888169.0 2:3.0 3:2.0 4:2.0 5:1.0 6:4.0 7:3.0 8:2.0 9:1.0 10:1.0 
-70.0 1:888523.0 2:4.0 3:4.0 4:4.0 5:2.0 6:2.0 7:3.0 8:2.0 9:1.0 10:1.0 
-70.0 1:896404.0 2:2.0 3:1.0 4:1.0 5:1.0 6:2.0 7:1.0 8:3.0 9:1.0 10:1.0 
-70.0 1:342245.0 2:1.0 3:1.0 4:3.0 5:1.0 6:2.0 7:1.0 8:1.0 9:1.0 10:1.0 
-70.0 1:493452.0 2:1.0 3:1.0 4:3.0 5:1.0 6:2.0 7:1.0 8:1.0 9:1.0 10:1.0 
-70.0 1:493452.0 2:4.0 3:1.0 4:2.0 5:1.0 6:2.0 7:1.0 8:2.0 9:1.0 10:1.0 
-70.0 1:636437.0 2:1.0 3:1.0 4:1.0 5:1.0 6:2.0 7:1.0 8:1.0 9:1.0 10:1.0 
-70.0 1:640712.0 2:1.0 3:1.0 4:1.0 5:1.0 6:2.0 7:1.0 8:2.0 9:1.0 10:1.0 
-70.0 1:805448.0 2:1.0 3:1.0 4:1.0 5:1.0 6:2.0 7:1.0 8:1.0 9:1.0 10:1.0 
-70.0 1:1002504.0 2:3.0 3:2.0 4:2.0 5:2.0 6:2.0 7:1.0 8:3.0 9:2.0 10:1.0 
-70.0 1:1114570.0 2:5.0 3:3.0 4:3.0 5:2.0 6:3.0 7:1.0 8:3.0 9:1.0 10:1.0 
-70.0 1:1114570.0 2:2.0 3:1.0 4:1.0 5:1.0 6:2.0 7:1.0 8:2.0 9:2.0 10:1.0 
-70.0 1:1116715.0 2:5.0 3:1.0 4:1.0 5:1.0 6:3.0 7:2.0 8:2.0 9:2.0 10:1.0 
-70.0 1:1131411.0 2:1.0 3:1.0 4:1.0 5:2.0 6:2.0 7:1.0 8:2.0 9:1.0 10:1.0 
-70.0 1:1158247.0 2:1.0 3:1.0 4:1.0 5:1.0 6:1.0 7:1.0 8:1.0 9:1.0 10:1.0 
-70.0 1:1158405.0 2:1.0 3:2.0 4:3.0 5:1.0 6:2.0 7:1.0 8:2.0 9:1.0 10:1.0 
-70.0 1:1196263.0 2:4.0 3:1.0 4:1.0 5:1.0 6:2.0 7:1.0 8:1.0 9:1.0 10:1.0 
-70.0 1:1223003.0 2:5.0 3:3.0 4:3.0 5:1.0 6:2.0 7:1.0 8:2.0 9:1.0 10:1.0 
-70.0 1:1229929.0 2:1.0 3:1.0 4:1.0 5:1.0 6:2.0 7:1.0 8:2.0 9:1.0 10:1.0 
-70.0 1:1231853.0 2:4.0 3:2.0 4:2.0 5:1.0 6:2.0 7:1.0 8:2.0 9:1.0 10:1.0 
-70.0 1:1236837.0 2:2.0 3:3.0 4:2.0 5:2.0 6:2.0 7:2.0 8:3.0 9:1.0 10:1.0 
-70.0 1:1237674.0 2:3.0 3:1.0 4:2.0 5:1.0 6:2.0 7:1.0 8:2.0 9:1.0 10:1.0 
-70.0 1:1257938.0 2:3.0 3:1.0 4:1.0 5:1.0 6:2.0 7:1.0 8:1.0 9:1.0 10:1.0 
-70.0 1:1272039.0 2:1.0 3:1.0 4:1.0 5:1.0 6:2.0 7:1.0 8:2.0 9:1.0 10:1.0 
-70.0 1:1276091.0 2:2.0 3:1.0 4:1.0 5:1.0 6:2.0 7:1.0 8:2.0 9:1.0 10:1.0 
-70.0 1:1276091.0 2:1.0 3:3.0 4:1.0 5:1.0 6:2.0 7:1.0 8:2.0 9:2.0 10:1.0 
-70.0 1:1276091.0 2:5.0 3:1.0 4:1.0 5:3.0 6:4.0 7:1.0 8:3.0 9:2.0 10:1.0 
-70.0 1:1293439.0 2:3.0 3:2.0 4:2.0 5:3.0 6:2.0 7:1.0 8:1.0 9:1.0 10:1.0 
-70.0 1:1293439.0 2:6.0 3:9.0 4:7.0 5:5.0 6:5.0 7:8.0 8:4.0 9:2.0 10:1.0 
-70.0 1:558538.0 2:4.0 3:1.0 4:3.0 5:3.0 6:2.0 7:1.0 8:1.0 9:1.0 10:1.0 
-70.0 1:734111.0 2:1.0 3:1.0 4:1.0 5:3.0 6:2.0 7:3.0 8:1.0 9:1.0 10:1.0 
-70.0 1:734111.0 2:1.0 3:1.0 4:1.0 5:1.0 6:2.0 7:2.0 8:1.0 9:1.0 10:1.0 
-70.0 1:1201870.0 2:4.0 3:1.0 4:1.0 5:3.0 6:1.0 7:1.0 8:2.0 9:1.0 10:1.0 
-70.0 1:1227081.0 2:3.0 3:1.0 4:1.0 5:3.0 6:2.0 7:1.0 8:1.0 9:1.0 10:1.0 
-70.0 1:1238410.0 2:2.0 3:3.0 4:1.0 5:1.0 6:3.0 7:1.0 8:1.0 9:1.0 10:1.0 
-70.0 1:1276091.0 2:6.0 3:1.0 4:1.0 5:3.0 6:2.0 7:1.0 8:1.0 9:1.0 10:1.0 
-70.0 1:1181685.0 2:1.0 3:1.0 4:2.0 5:1.0 6:2.0 7:1.0 8:2.0 9:1.0 10:1.0 
-70.0 1:1238777.0 2:6.0 3:1.0 4:1.0 5:3.0 6:2.0 7:1.0 8:1.0 9:1.0 10:1.0 
-70.0 1:1257608.0 2:6.0 3:1.0 4:1.0 5:1.0 6:1.0 7:1.0 8:1.0 9:1.0 10:1.0 
-70.0 1:1296263.0 2:4.0 3:1.0 4:1.0 5:1.0 6:2.0 7:1.0 8:1.0 9:1.0 10:1.0 
-70.0 1:1302428.0 2:5.0 3:3.0 4:2.0 5:4.0 6:2.0 7:1.0 8:1.0 9:1.0 10:1.0 
-70.0 1:1002025.0 2:1.0 3:1.0 4:1.0 5:3.0 6:1.0 7:3.0 8:1.0 9:1.0 10:1.0 
-70.0 1:1070522.0 2:3.0 3:1.0 4:1.0 5:1.0 6:1.0 7:1.0 8:2.0 9:1.0 10:1.0 
-70.0 1:1115293.0 2:1.0 3:1.0 4:1.0 5:1.0 6:2.0 7:1.0 8:1.0 9:1.0 10:1.0 
-70.0 1:1268766.0 2:1.0 3:1.0 4:1.0 5:1.0 6:2.0 7:1.0 8:1.0 9:1.0 10:1.0 
-70.0 1:1298360.0 2:1.0 3:1.0 4:1.0 5:1.0 6:2.0 7:1.0 8:1.0 9:1.0 10:1.0 
-70.0 1:369565.0 2:4.0 3:1.0 4:1.0 5:1.0 6:3.0 7:1.0 8:1.0 9:1.0 10:1.0 
-70.0 1:749653.0 2:3.0 3:1.0 4:1.0 5:1.0 6:2.0 7:1.0 8:2.0 9:1.0 10:1.0 
-70.0 1:807657.0 2:6.0 3:1.0 4:3.0 5:2.0 6:2.0 7:1.0 8:1.0 9:1.0 10:1.0 
-70.0 1:869828.0 2:1.0 3:1.0 4:1.0 5:1.0 6:1.0 7:1.0 8:3.0 9:1.0 10:1.0 
-70.0 1:1113061.0 2:5.0 3:1.0 4:1.0 5:1.0 6:2.0 7:1.0 8:3.0 9:1.0 10:1.0 
-70.0 1:1135090.0 2:4.0 3:1.0 4:1.0 5:1.0 6:2.0 7:1.0 8:2.0 9:1.0 10:1.0 
-70.0 1:1287971.0 2:3.0 3:1.0 4:1.0 5:1.0 6:2.0 7:1.0 8:2.0 9:1.0 10:1.0 
-70.0 1:1306339.0 2:4.0 3:4.0 4:2.0 5:1.0 6:2.0 7:5.0 8:2.0 9:1.0 10:2.0 
-70.0 1:1321942.0 2:5.0 3:1.0 4:1.0 5:1.0 6:2.0 7:1.0 8:3.0 9:1.0 10:1.0 
-70.0 1:1321942.0 2:5.0 3:1.0 4:1.0 5:1.0 6:2.0 7:1.0 8:3.0 9:1.0 10:1.0 
-70.0 1:1328331.0 2:1.0 3:1.0 4:1.0 5:1.0 6:2.0 7:1.0 8:3.0 9:1.0 10:1.0 
-70.0 1:385103.0 2:5.0 3:1.0 4:2.0 5:1.0 6:2.0 7:1.0 8:3.0 9:1.0 10:1.0 
-70.0 1:690557.0 2:5.0 3:1.0 4:1.0 5:1.0 6:2.0 7:1.0 8:2.0 9:1.0 10:1.0 
-70.0 1:871549.0 2:5.0 3:1.0 4:2.0 5:1.0 6:2.0 7:1.0 8:2.0 9:1.0 10:1.0 
-70.0 1:1333063.0 2:5.0 3:1.0 4:3.0 5:1.0 6:2.0 7:1.0 8:3.0 9:1.0 10:1.0 
-70.0 1:1334659.0 2:5.0 3:2.0 4:4.0 5:1.0 6:1.0 7:1.0 8:1.0 9:1.0 10:1.0 
-70.0 1:636375.0 2:5.0 3:1.0 4:1.0 5:1.0 6:2.0 7:1.0 8:1.0 9:1.0 10:1.0 
-70.0 1:1083817.0 2:3.0 3:1.0 4:1.0 5:1.0 6:2.0 7:1.0 8:2.0 9:1.0 10:1.0 
-70.0 1:1096352.0 2:6.0 3:3.0 4:3.0 5:3.0 6:3.0 7:2.0 8:6.0 9:1.0 10:1.0 
-70.0 1:1149548.0 2:1.0 3:1.0 4:1.0 5:1.0 6:2.0 7:1.0 8:1.0 9:1.0 10:1.0 
-70.0 1:1174009.0 2:5.0 3:1.0 4:1.0 5:2.0 6:1.0 7:1.0 8:2.0 9:1.0 10:1.0 
-70.0 1:1190546.0 2:2.0 3:1.0 4:1.0 5:1.0 6:2.0 7:5.0 8:1.0 9:1.0 10:1.0 
-70.0 1:1225382.0 2:6.0 3:2.0 4:3.0 5:1.0 6:2.0 7:1.0 8:1.0 9:1.0 10:1.0 
-70.0 1:1238777.0 2:1.0 3:1.0 4:1.0 5:1.0 6:2.0 7:1.0 8:1.0 9:1.0 10:1.0 
-70.0 1:1257366.0 2:3.0 3:1.0 4:1.0 5:1.0 6:2.0 7:1.0 8:1.0 9:1.0 10:1.0 
-70.0 1:1318671.0 2:3.0 3:1.0 4:1.0 5:1.0 6:2.0 7:1.0 8:2.0 9:1.0 10:1.0 
-70.0 1:1334667.0 2:1.0 3:1.0 4:1.0 5:1.0 6:2.0 7:1.0 8:1.0 9:1.0 10:1.0 
-70.0 1:1345452.0 2:1.0 3:1.0 4:3.0 5:1.0 6:2.0 7:1.0 8:2.0 9:1.0 10:1.0 
-70.0 1:1345593.0 2:3.0 3:1.0 4:1.0 5:3.0 6:2.0 7:1.0 8:2.0 9:1.0 10:1.0 
-70.0 1:1348851.0 2:3.0 3:1.0 4:1.0 5:1.0 6:2.0 7:1.0 8:3.0 9:1.0 10:1.0 
-70.0 1:1365075.0 2:4.0 3:1.0 4:4.0 5:1.0 6:2.0 7:1.0 8:1.0 9:1.0 10:1.0 
-70.0 1:534555.0 2:1.0 3:1.0 4:1.0 5:1.0 6:2.0 7:1.0 8:1.0 9:1.0 10:1.0 
-28.352676917432184 1:566346.0 2:3.0 3:1.0 4:1.0 5:1.0 6:2.0 7:1.0 8:2.0 9:3.0 10:1.0 
-70.0 1:654546.0 2:1.0 3:1.0 4:1.0 5:1.0 6:2.0 7:1.0 8:1.0 9:1.0 10:8.0 
-70.0 1:654546.0 2:1.0 3:1.0 4:1.0 5:3.0 6:2.0 7:1.0 8:1.0 9:1.0 10:1.0 
-70.0 1:714039.0 2:3.0 3:1.0 4:1.0 5:1.0 6:2.0 7:1.0 8:1.0 9:1.0 10:1.0 
-70.0 1:763235.0 2:3.0 3:1.0 4:1.0 5:1.0 6:2.0 7:1.0 8:2.0 9:1.0 10:2.0 
